<?xml version="1.0"?>
<opencv_storage>
<cascades type_id="opencv-haar-classifier">
  <size>
    10 10</size>
  <stages>
    <_>
      <!-- stage 0 -->
      <trees>
        <_>
          <!-- tree 0 -->
          <_>
            <!-- root node -->
            <feature>
              <rects>
                <_>
                  2 0 6 2 -1.</_>
                <_>
                  2 1 6 1 2.</_></rects>
              <tilted>0</tilted></feature>
            <threshold>-0.0416220612823963</threshold>
            <left_val>0.7571715116500854</left_val>
            <right_node>1</right_node></_>
          <_>
            <!-- node 1 -->
            <feature>
              <rects>
                <_>
                  2 0 3 9 -1.</_>
                <_>
                  2 3 3 3 3.</_></rects>
              <tilted>0</tilted></feature>
            <threshold>-0.1202118992805481</threshold>
            <left_val>0.1256870031356812</left_val>
            <right_val>-0.6810147762298584</right_val></_></_>
        <_>
          <!-- tree 1 -->
          <_>
            <!-- root node -->
            <feature>
              <rects>
                <_>
                  0 3 2 3 -1.</_>
                <_>
                  1 3 1 3 2.</_></rects>
              <tilted>0</tilted></feature>
            <threshold>-0.0127824097871780</threshold>
            <left_node>1</left_node>
            <right_val>-0.3300938010215759</right_val></_>
          <_>
            <!-- node 1 -->
            <feature>
              <rects>
                <_>
                  0 0 10 10 -1.</_>
                <_>
                  5 0 5 10 2.</_></rects>
              <tilted>0</tilted></feature>
            <threshold>-0.8877627849578857</threshold>
            <left_val>-0.5859416723251343</left_val>
            <right_val>0.5859283804893494</right_val></_></_>
        <_>
          <!-- tree 2 -->
          <_>
            <!-- root node -->
            <feature>
              <rects>
                <_>
                  0 0 10 10 -1.</_>
                <_>
                  5 0 5 10 2.</_></rects>
              <tilted>0</tilted></feature>
            <threshold>0.9618176221847534</threshold>
            <left_node>1</left_node>
            <right_val>-0.7667551040649414</right_val></_>
          <_>
            <!-- node 1 -->
            <feature>
              <rects>
                <_>
                  8 3 2 3 -1.</_>
                <_>
                  9 3 1 3 2.</_></rects>
              <tilted>0</tilted></feature>
            <threshold>0.0233425591140985</threshold>
            <left_val>-0.0568593703210354</left_val>
            <right_val>0.5378199815750122</right_val></_></_>
        <_>
          <!-- tree 3 -->
          <_>
            <!-- root node -->
            <feature>
              <rects>
                <_>
                  6 6 4 4 -1.</_>
                <_>
                  6 6 2 2 2.</_>
                <_>
                  8 8 2 2 2.</_></rects>
              <tilted>0</tilted></feature>
            <threshold>0.0306555107235909</threshold>
            <left_node>1</left_node>
            <right_val>0.3892610073089600</right_val></_>
          <_>
            <!-- node 1 -->
            <feature>
              <rects>
                <_>
                  2 0 1 2 -1.</_>
                <_>
                  2 1 1 1 2.</_></rects>
              <tilted>0</tilted></feature>
            <threshold>0.0145847797393799</threshold>
            <left_val>-0.3434020876884460</left_val>
            <right_val>0.5499501228332520</right_val></_></_>
        <_>
          <!-- tree 4 -->
          <_>
            <!-- root node -->
            <feature>
              <rects>
                <_>
                  3 0 3 3 -1.</_>
                <_>
                  3 1 3 1 3.</_></rects>
              <tilted>0</tilted></feature>
            <threshold>-0.0241489391773939</threshold>
            <left_val>0.4637449979782104</left_val>
            <right_node>1</right_node></_>
          <_>
            <!-- node 1 -->
            <feature>
              <rects>
                <_>
                  1 0 7 3 -1.</_>
                <_>
                  1 1 7 1 3.</_></rects>
              <tilted>0</tilted></feature>
            <threshold>0.0400759316980839</threshold>
            <left_val>-0.2953492105007172</left_val>
            <right_val>0.3136366009712219</right_val></_></_>
        <_>
          <!-- tree 5 -->
          <_>
            <!-- root node -->
            <feature>
              <rects>
                <_>
                  5 7 2 2 -1.</_>
                <_>
                  5 7 1 1 2.</_>
                <_>
                  6 8 1 1 2.</_></rects>
              <tilted>0</tilted></feature>
            <threshold>2.6279781013727188e-04</threshold>
            <left_node>1</left_node>
            <right_val>0.2880786955356598</right_val></_>
          <_>
            <!-- node 1 -->
            <feature>
              <rects>
                <_>
                  5 7 2 2 -1.</_>
                <_>
                  5 7 1 1 2.</_>
                <_>
                  6 8 1 1 2.</_></rects>
              <tilted>0</tilted></feature>
            <threshold>-1.9712249923031777e-04</threshold>
            <left_val>0.0505513213574886</left_val>
            <right_val>-0.7986416220664978</right_val></_></_>
        <_>
          <!-- tree 6 -->
          <_>
            <!-- root node -->
            <feature>
              <rects>
                <_>
                  2 2 2 2 -1.</_>
                <_>
                  2 2 1 1 2.</_>
                <_>
                  3 3 1 1 2.</_></rects>
              <tilted>0</tilted></feature>
            <threshold>2.0741909975185990e-04</threshold>
            <left_node>1</left_node>
            <right_val>0.1841271966695786</right_val></_>
          <_>
            <!-- node 1 -->
            <feature>
              <rects>
                <_>
                  2 2 2 2 -1.</_>
                <_>
                  2 2 1 1 2.</_>
                <_>
                  3 3 1 1 2.</_></rects>
              <tilted>0</tilted></feature>
            <threshold>-2.2990579600445926e-04</threshold>
            <left_val>-0.0950881317257881</left_val>
            <right_val>-0.7290006279945374</right_val></_></_>
        <_>
          <!-- tree 7 -->
          <_>
            <!-- root node -->
            <feature>
              <rects>
                <_>
                  7 5 2 1 -1.</_>
                <_>
                  8 5 1 1 2.</_></rects>
              <tilted>0</tilted></feature>
            <threshold>1.8775539938360453e-03</threshold>
            <left_node>1</left_node>
            <right_val>0.2179398983716965</right_val></_>
          <_>
            <!-- node 1 -->
            <feature>
              <rects>
                <_>
                  2 5 6 3 -1.</_>
                <_>
                  2 6 6 1 3.</_></rects>
              <tilted>0</tilted></feature>
            <threshold>0.0428115092217922</threshold>
            <left_val>-0.4153015017509460</left_val>
            <right_val>0.3500373065471649</right_val></_></_></trees>
      <stage_threshold>-1.5758069753646851</stage_threshold>
      <parent>-1</parent>
      <next>-1</next></_>
    <_>
      <!-- stage 1 -->
      <trees>
        <_>
          <!-- tree 0 -->
          <_>
            <!-- root node -->
            <feature>
              <rects>
                <_>
                  2 0 6 2 -1.</_>
                <_>
                  2 1 6 1 2.</_></rects>
              <tilted>0</tilted></feature>
            <threshold>-0.0586079917848110</threshold>
            <left_node>1</left_node>
            <right_val>-0.4140379130840302</right_val></_>
          <_>
            <!-- node 1 -->
            <feature>
              <rects>
                <_>
                  0 1 9 1 -1.</_>
                <_>
                  3 1 3 1 3.</_></rects>
              <tilted>0</tilted></feature>
            <threshold>-0.0349607095122337</threshold>
            <left_val>0.8422687053680420</left_val>
            <right_val>-0.4297345876693726</right_val></_></_>
        <_>
          <!-- tree 1 -->
          <_>
            <!-- root node -->
            <feature>
              <rects>
                <_>
                  0 3 2 4 -1.</_>
                <_>
                  1 3 1 4 2.</_></rects>
              <tilted>0</tilted></feature>
            <threshold>-0.0349983796477318</threshold>
            <left_val>0.5253013968467712</left_val>
            <right_node>1</right_node></_>
          <_>
            <!-- node 1 -->
            <feature>
              <rects>
                <_>
                  1 1 2 2 -1.</_>
                <_>
                  1 1 1 1 2.</_>
                <_>
                  2 2 1 1 2.</_></rects>
              <tilted>0</tilted></feature>
            <threshold>-5.9434091672301292e-03</threshold>
            <left_val>0.3246268033981323</left_val>
            <right_val>-0.3849698007106781</right_val></_></_>
        <_>
          <!-- tree 2 -->
          <_>
            <!-- root node -->
            <feature>
              <rects>
                <_>
                  2 5 7 2 -1.</_>
                <_>
                  2 6 7 1 2.</_></rects>
              <tilted>0</tilted></feature>
            <threshold>0.0150319198146462</threshold>
            <left_node>1</left_node>
            <right_val>0.3565199971199036</right_val></_>
          <_>
            <!-- node 1 -->
            <feature>
              <rects>
                <_>
                  5 3 3 3 -1.</_>
                <_>
                  5 4 3 1 3.</_></rects>
              <tilted>0</tilted></feature>
            <threshold>-2.2086310491431504e-04</threshold>
            <left_val>0.0238438993692398</left_val>
            <right_val>-0.5161830186843872</right_val></_></_>
        <_>
          <!-- tree 3 -->
          <_>
            <!-- root node -->
            <feature>
              <rects>
                <_>
                  4 3 6 1 -1.</_>
                <_>
                  6 3 2 1 3.</_></rects>
              <tilted>0</tilted></feature>
            <threshold>-0.0329195298254490</threshold>
            <left_node>1</left_node>
            <right_val>-0.2393621951341629</right_val></_>
          <_>
            <!-- node 1 -->
            <feature>
              <rects>
                <_>
                  7 1 1 2 -1.</_>
                <_>
                  7 2 1 1 2.</_></rects>
              <tilted>0</tilted></feature>
            <threshold>-1.4467979781329632e-03</threshold>
            <left_val>0.5530210733413696</left_val>
            <right_val>-0.3198389112949371</right_val></_></_>
        <_>
          <!-- tree 4 -->
          <_>
            <!-- root node -->
            <feature>
              <rects>
                <_>
                  2 3 1 2 -1.</_>
                <_>
                  2 4 1 1 2.</_></rects>
              <tilted>0</tilted></feature>
            <threshold>-2.0938250236213207e-04</threshold>
            <left_val>0.2319917976856232</left_val>
            <right_node>1</right_node></_>
          <_>
            <!-- node 1 -->
            <feature>
              <rects>
                <_>
                  3 7 1 2 -1.</_>
                <_>
                  3 8 1 1 2.</_></rects>
              <tilted>0</tilted></feature>
            <threshold>-2.2518690093420446e-04</threshold>
            <left_val>0.0870074406266212</left_val>
            <right_val>-0.5931006073951721</right_val></_></_>
        <_>
          <!-- tree 5 -->
          <_>
            <!-- root node -->
            <feature>
              <rects>
                <_>
                  1 8 6 2 -1.</_>
                <_>
                  1 8 3 1 2.</_>
                <_>
                  4 9 3 1 2.</_></rects>
              <tilted>0</tilted></feature>
            <threshold>-0.0171734094619751</threshold>
            <left_val>0.3711951076984406</left_val>
            <right_node>1</right_node></_>
          <_>
            <!-- node 1 -->
            <feature>
              <rects>
                <_>
                  6 8 4 2 -1.</_>
                <_>
                  6 8 2 1 2.</_>
                <_>
                  8 9 2 1 2.</_></rects>
              <tilted>0</tilted></feature>
            <threshold>-0.0136608602479100</threshold>
            <left_val>0.2929838895797729</left_val>
            <right_val>-0.2853659093379974</right_val></_></_>
        <_>
          <!-- tree 6 -->
          <_>
            <!-- root node -->
            <feature>
              <rects>
                <_>
                  8 8 1 2 -1.</_>
                <_>
                  8 9 1 1 2.</_></rects>
              <tilted>0</tilted></feature>
            <threshold>2.3575860541313887e-04</threshold>
            <left_node>1</left_node>
            <right_val>0.2609769999980927</right_val></_>
          <_>
            <!-- node 1 -->
            <feature>
              <rects>
                <_>
                  8 8 1 2 -1.</_>
                <_>
                  8 9 1 1 2.</_></rects>
              <tilted>0</tilted></feature>
            <threshold>-2.0938250236213207e-04</threshold>
            <left_val>-0.0494605600833893</left_val>
            <right_val>-0.7749279141426086</right_val></_></_>
        <_>
          <!-- tree 7 -->
          <_>
            <!-- root node -->
            <feature>
              <rects>
                <_>
                  2 2 1 3 -1.</_>
                <_>
                  2 3 1 1 3.</_></rects>
              <tilted>0</tilted></feature>
            <threshold>-2.9692958923988044e-04</threshold>
            <left_val>0.1787285059690475</left_val>
            <right_node>1</right_node></_>
          <_>
            <!-- node 1 -->
            <feature>
              <rects>
                <_>
                  7 6 3 1 -1.</_>
                <_>
                  8 6 1 1 3.</_></rects>
              <tilted>0</tilted></feature>
            <threshold>-0.0118479495868087</threshold>
            <left_val>0.2093952000141144</left_val>
            <right_val>-0.4011873006820679</right_val></_></_>
        <_>
          <!-- tree 8 -->
          <_>
            <!-- root node -->
            <feature>
              <rects>
                <_>
                  5 0 4 2 -1.</_>
                <_>
                  5 0 2 1 2.</_>
                <_>
                  7 1 2 1 2.</_></rects>
              <tilted>0</tilted></feature>
            <threshold>0.0108088999986649</threshold>
            <left_node>1</left_node>
            <right_val>0.3030973076820374</right_val></_>
          <_>
            <!-- node 1 -->
            <feature>
              <rects>
                <_>
                  3 0 5 6 -1.</_>
                <_>
                  3 2 5 2 3.</_></rects>
              <tilted>0</tilted></feature>
            <threshold>0.0902576074004173</threshold>
            <left_val>-0.2910713851451874</left_val>
            <right_val>0.2858788967132568</right_val></_></_>
        <_>
          <!-- tree 9 -->
          <_>
            <!-- root node -->
            <feature>
              <rects>
                <_>
                  2 1 6 6 -1.</_>
                <_>
                  2 4 6 3 2.</_></rects>
              <tilted>0</tilted></feature>
            <threshold>0.1478458940982819</threshold>
            <left_node>1</left_node>
            <right_val>0.3702026903629303</right_val></_>
          <_>
            <!-- node 1 -->
            <feature>
              <rects>
                <_>
                  2 0 2 2 -1.</_>
                <_>
                  2 1 2 1 2.</_></rects>
              <tilted>0</tilted></feature>
            <threshold>0.0254493206739426</threshold>
            <left_val>-0.2179325968027115</left_val>
            <right_val>0.3867473006248474</right_val></_></_>
        <_>
          <!-- tree 10 -->
          <_>
            <!-- root node -->
            <feature>
              <rects>
                <_>
                  0 5 9 4 -1.</_>
                <_>
                  3 5 3 4 3.</_></rects>
              <tilted>0</tilted></feature>
            <threshold>-0.1905921995639801</threshold>
            <left_val>0.3033154010772705</left_val>
            <right_node>1</right_node></_>
          <_>
            <!-- node 1 -->
            <feature>
              <rects>
                <_>
                  7 3 3 4 -1.</_>
                <_>
                  8 3 1 4 3.</_></rects>
              <tilted>0</tilted></feature>
            <threshold>-0.0278552994132042</threshold>
            <left_val>0.2379707992076874</left_val>
            <right_val>-0.3254550099372864</right_val></_></_>
        <_>
          <!-- tree 11 -->
          <_>
            <!-- root node -->
            <feature>
              <rects>
                <_>
                  2 1 1 2 -1.</_>
                <_>
                  2 2 1 1 2.</_></rects>
              <tilted>0</tilted></feature>
            <threshold>-3.4289079485461116e-04</threshold>
            <left_val>0.1566663980484009</left_val>
            <right_node>1</right_node></_>
          <_>
            <!-- node 1 -->
            <feature>
              <rects>
                <_>
                  0 1 4 5 -1.</_>
                <_>
                  2 1 2 5 2.</_></rects>
              <tilted>0</tilted></feature>
            <threshold>0.0454595983028412</threshold>
            <left_val>-0.5023198127746582</left_val>
            <right_val>0.2960368990898132</right_val></_></_>
        <_>
          <!-- tree 12 -->
          <_>
            <!-- root node -->
            <feature>
              <rects>
                <_>
                  7 6 3 3 -1.</_>
                <_>
                  8 6 1 3 3.</_></rects>
              <tilted>0</tilted></feature>
            <threshold>0.0199615303426981</threshold>
            <left_node>1</left_node>
            <right_val>0.2979122102260590</right_val></_>
          <_>
            <!-- node 1 -->
            <feature>
              <rects>
                <_>
                  3 0 4 2 -1.</_>
                <_>
                  5 0 2 2 2.</_></rects>
              <tilted>0</tilted></feature>
            <threshold>-0.0643788129091263</threshold>
            <left_val>-0.7328361272811890</left_val>
            <right_val>-0.0520831011235714</right_val></_></_></trees>
      <stage_threshold>-1.4014610052108765</stage_threshold>
      <parent>0</parent>
      <next>-1</next></_>
    <_>
      <!-- stage 2 -->
      <trees>
        <_>
          <!-- tree 0 -->
          <_>
            <!-- root node -->
            <feature>
              <rects>
                <_>
                  2 0 5 2 -1.</_>
                <_>
                  2 1 5 1 2.</_></rects>
              <tilted>0</tilted></feature>
            <threshold>-0.0534448102116585</threshold>
            <left_node>1</left_node>
            <right_val>-0.3924061059951782</right_val></_>
          <_>
            <!-- node 1 -->
            <feature>
              <rects>
                <_>
                  6 1 2 1 -1.</_>
                <_>
                  7 1 1 1 2.</_></rects>
              <tilted>0</tilted></feature>
            <threshold>3.4984629019163549e-04</threshold>
            <left_val>-0.2416532039642334</left_val>
            <right_val>0.7817754149436951</right_val></_></_>
        <_>
          <!-- tree 1 -->
          <_>
            <!-- root node -->
            <feature>
              <rects>
                <_>
                  0 1 4 9 -1.</_>
                <_>
                  2 1 2 9 2.</_></rects>
              <tilted>0</tilted></feature>
            <threshold>-0.1643431931734085</threshold>
            <left_node>1</left_node>
            <right_val>-0.2069628983736038</right_val></_>
          <_>
            <!-- node 1 -->
            <feature>
              <rects>
                <_>
                  6 2 4 3 -1.</_>
                <_>
                  8 2 2 3 2.</_></rects>
              <tilted>0</tilted></feature>
            <threshold>0.0523677282035351</threshold>
            <left_val>0.0370239689946175</left_val>
            <right_val>0.7108647823333740</right_val></_></_>
        <_>
          <!-- tree 2 -->
          <_>
            <!-- root node -->
            <feature>
              <rects>
                <_>
                  1 2 1 2 -1.</_>
                <_>
                  1 3 1 1 2.</_></rects>
              <tilted>0</tilted></feature>
            <threshold>-2.3202209558803588e-04</threshold>
            <left_node>1</left_node>
            <right_val>-0.2556807994842529</right_val></_>
          <_>
            <!-- node 1 -->
            <feature>
              <rects>
                <_>
                  3 5 6 2 -1.</_>
                <_>
                  3 6 6 1 2.</_></rects>
              <tilted>0</tilted></feature>
            <threshold>0.0184362996369600</threshold>
            <left_val>-0.0143181402236223</left_val>
            <right_val>0.5447115898132324</right_val></_></_>
        <_>
          <!-- tree 3 -->
          <_>
            <!-- root node -->
            <feature>
              <rects>
                <_>
                  2 0 6 3 -1.</_>
                <_>
                  5 0 3 3 2.</_></rects>
              <tilted>0</tilted></feature>
            <threshold>0.1444195061922073</threshold>
            <left_node>1</left_node>
            <right_val>-0.5949357151985168</right_val></_>
          <_>
            <!-- node 1 -->
            <feature>
              <rects>
                <_>
                  4 1 3 3 -1.</_>
                <_>
                  5 1 1 3 3.</_></rects>
              <tilted>0</tilted></feature>
            <threshold>-0.0452610217034817</threshold>
            <left_val>-0.7625095248222351</left_val>
            <right_val>0.0905701592564583</right_val></_></_>
        <_>
          <!-- tree 4 -->
          <_>
            <!-- root node -->
            <feature>
              <rects>
                <_>
                  0 0 3 10 -1.</_>
                <_>
                  0 5 3 5 2.</_></rects>
              <tilted>0</tilted></feature>
            <threshold>-0.3091635107994080</threshold>
            <left_val>-0.5271605849266052</left_val>
            <right_node>1</right_node></_>
          <_>
            <!-- node 1 -->
            <feature>
              <rects>
                <_>
                  0 0 10 10 -1.</_>
                <_>
                  0 5 10 5 2.</_></rects>
              <tilted>0</tilted></feature>
            <threshold>1.1444289684295654</threshold>
            <left_val>0.1093607991933823</left_val>
            <right_val>-0.8558803796768188</right_val></_></_>
        <_>
          <!-- tree 5 -->
          <_>
            <!-- root node -->
            <feature>
              <rects>
                <_>
                  3 1 2 2 -1.</_>
                <_>
                  3 1 1 1 2.</_>
                <_>
                  4 2 1 1 2.</_></rects>
              <tilted>0</tilted></feature>
            <threshold>1.1522549903020263e-04</threshold>
            <left_node>1</left_node>
            <right_val>0.1779557019472122</right_val></_>
          <_>
            <!-- node 1 -->
            <feature>
              <rects>
                <_>
                  3 1 2 2 -1.</_>
                <_>
                  3 1 1 1 2.</_>
                <_>
                  4 2 1 1 2.</_></rects>
              <tilted>0</tilted></feature>
            <threshold>-1.1361169890733436e-04</threshold>
            <left_val>-0.0359457209706306</left_val>
            <right_val>-0.7448859214782715</right_val></_></_>
        <_>
          <!-- tree 6 -->
          <_>
            <!-- root node -->
            <feature>
              <rects>
                <_>
                  8 4 2 6 -1.</_>
                <_>
                  9 4 1 6 2.</_></rects>
              <tilted>0</tilted></feature>
            <threshold>0.0539565384387970</threshold>
            <left_node>1</left_node>
            <right_val>0.3063986003398895</right_val></_>
          <_>
            <!-- node 1 -->
            <feature>
              <rects>
                <_>
                  0 8 10 2 -1.</_>
                <_>
                  0 9 10 1 2.</_></rects>
              <tilted>0</tilted></feature>
            <threshold>0.0310235098004341</threshold>
            <left_val>-0.2796033024787903</left_val>
            <right_val>0.1606066972017288</right_val></_></_>
        <_>
          <!-- tree 7 -->
          <_>
            <!-- root node -->
            <feature>
              <rects>
                <_>
                  5 8 1 2 -1.</_>
                <_>
                  5 9 1 1 2.</_></rects>
              <tilted>0</tilted></feature>
            <threshold>-2.5337250554002821e-04</threshold>
            <left_val>0.2012082934379578</left_val>
            <right_node>1</right_node></_>
          <_>
            <!-- node 1 -->
            <feature>
              <rects>
                <_>
                  5 8 1 2 -1.</_>
                <_>
                  5 9 1 1 2.</_></rects>
              <tilted>0</tilted></feature>
            <threshold>2.3168210464064032e-04</threshold>
            <left_val>-0.7728211879730225</left_val>
            <right_val>-0.0448658689856529</right_val></_></_>
        <_>
          <!-- tree 8 -->
          <_>
            <!-- root node -->
            <feature>
              <rects>
                <_>
                  1 5 7 3 -1.</_>
                <_>
                  1 6 7 1 3.</_></rects>
              <tilted>0</tilted></feature>
            <threshold>0.0356287695467472</threshold>
            <left_node>1</left_node>
            <right_val>0.2631317079067230</right_val></_>
          <_>
            <!-- node 1 -->
            <feature>
              <rects>
                <_>
                  1 1 7 6 -1.</_>
                <_>
                  1 4 7 3 2.</_></rects>
              <tilted>0</tilted></feature>
            <threshold>-0.3077355921268463</threshold>
            <left_val>0.3473021984100342</left_val>
            <right_val>-0.2260015010833740</right_val></_></_>
        <_>
          <!-- tree 9 -->
          <_>
            <!-- root node -->
            <feature>
              <rects>
                <_>
                  1 1 7 3 -1.</_>
                <_>
                  1 2 7 1 3.</_></rects>
              <tilted>0</tilted></feature>
            <threshold>-0.0210018493235111</threshold>
            <left_val>0.2322885990142822</left_val>
            <right_node>1</right_node></_>
          <_>
            <!-- node 1 -->
            <feature>
              <rects>
                <_>
                  2 0 6 2 -1.</_>
                <_>
                  2 1 6 1 2.</_></rects>
              <tilted>0</tilted></feature>
            <threshold>0.0367660783231258</threshold>
            <left_val>-0.2623328864574432</left_val>
            <right_val>0.2774747908115387</right_val></_></_>
        <_>
          <!-- tree 10 -->
          <_>
            <!-- root node -->
            <feature>
              <rects>
                <_>
                  3 0 4 3 -1.</_>
                <_>
                  3 1 4 1 3.</_></rects>
              <tilted>0</tilted></feature>
            <threshold>-0.0302276108413935</threshold>
            <left_node>1</left_node>
            <right_val>-0.1495285928249359</right_val></_>
          <_>
            <!-- node 1 -->
            <feature>
              <rects>
                <_>
                  0 1 2 2 -1.</_>
                <_>
                  0 1 1 1 2.</_>
                <_>
                  1 2 1 1 2.</_></rects>
              <tilted>0</tilted></feature>
            <threshold>-1.1957879905821756e-04</threshold>
            <left_val>0.4993388950824738</left_val>
            <right_val>-0.0815482735633850</right_val></_></_>
        <_>
          <!-- tree 11 -->
          <_>
            <!-- root node -->
            <feature>
              <rects>
                <_>
                  7 5 3 4 -1.</_>
                <_>
                  8 5 1 4 3.</_></rects>
              <tilted>0</tilted></feature>
            <threshold>0.0294884797185659</threshold>
            <left_node>1</left_node>
            <right_val>0.2986347079277039</right_val></_>
          <_>
            <!-- node 1 -->
            <feature>
              <rects>
                <_>
                  7 6 2 4 -1.</_>
                <_>
                  7 6 1 2 2.</_>
                <_>
                  8 8 1 2 2.</_></rects>
              <tilted>0</tilted></feature>
            <threshold>0.0145584903657436</threshold>
            <left_val>-0.2308087050914764</left_val>
            <right_val>0.1797820031642914</right_val></_></_>
        <_>
          <!-- tree 12 -->
          <_>
            <!-- root node -->
            <feature>
              <rects>
                <_>
                  3 0 3 3 -1.</_>
                <_>
                  4 0 1 3 3.</_></rects>
              <tilted>0</tilted></feature>
            <threshold>-0.0409729294478893</threshold>
            <left_val>-0.5753563046455383</left_val>
            <right_node>1</right_node></_>
          <_>
            <!-- node 1 -->
            <feature>
              <rects>
                <_>
                  3 1 3 2 -1.</_>
                <_>
                  4 1 1 2 3.</_></rects>
              <tilted>0</tilted></feature>
            <threshold>6.9685308262705803e-03</threshold>
            <left_val>0.1926016062498093</left_val>
            <right_val>-0.2222362011671066</right_val></_></_>
        <_>
          <!-- tree 13 -->
          <_>
            <!-- root node -->
            <feature>
              <rects>
                <_>
                  3 3 1 2 -1.</_>
                <_>
                  3 4 1 1 2.</_></rects>
              <tilted>0</tilted></feature>
            <threshold>-1.0911140270764008e-04</threshold>
            <left_val>0.1613700985908508</left_val>
            <right_node>1</right_node></_>
          <_>
            <!-- node 1 -->
            <feature>
              <rects>
                <_>
                  3 3 1 2 -1.</_>
                <_>
                  3 4 1 1 2.</_></rects>
              <tilted>0</tilted></feature>
            <threshold>1.0129089787369594e-04</threshold>
            <left_val>-0.7530518770217896</left_val>
            <right_val>-0.0455931685864925</right_val></_></_>
        <_>
          <!-- tree 14 -->
          <_>
            <!-- root node -->
            <feature>
              <rects>
                <_>
                  9 0 1 2 -1.</_>
                <_>
                  9 1 1 1 2.</_></rects>
              <tilted>0</tilted></feature>
            <threshold>-5.9077558107674122e-03</threshold>
            <left_val>-0.3248355090618134</left_val>
            <right_node>1</right_node></_>
          <_>
            <!-- node 1 -->
            <feature>
              <rects>
                <_>
                  7 2 1 2 -1.</_>
                <_>
                  7 3 1 1 2.</_></rects>
              <tilted>0</tilted></feature>
            <threshold>-1.0129089787369594e-04</threshold>
            <left_val>0.2620978951454163</left_val>
            <right_val>-0.1335456967353821</right_val></_></_>
        <_>
          <!-- tree 15 -->
          <_>
            <!-- root node -->
            <feature>
              <rects>
                <_>
                  1 4 3 1 -1.</_>
                <_>
                  2 4 1 1 3.</_></rects>
              <tilted>0</tilted></feature>
            <threshold>-1.0129089787369594e-04</threshold>
            <left_val>0.1404637992382050</left_val>
            <right_node>1</right_node></_>
          <_>
            <!-- node 1 -->
            <feature>
              <rects>
                <_>
                  1 4 3 1 -1.</_>
                <_>
                  2 4 1 1 3.</_></rects>
              <tilted>0</tilted></feature>
            <threshold>1.0962680244119838e-04</threshold>
            <left_val>-0.7940713167190552</left_val>
            <right_val>-0.1020874977111816</right_val></_></_></trees>
      <stage_threshold>-1.3366769552230835</stage_threshold>
      <parent>1</parent>
      <next>-1</next></_>
    <_>
      <!-- stage 3 -->
      <trees>
        <_>
          <!-- tree 0 -->
          <_>
            <!-- root node -->
            <feature>
              <rects>
                <_>
                  2 0 6 2 -1.</_>
                <_>
                  2 1 6 1 2.</_></rects>
              <tilted>0</tilted></feature>
            <threshold>-0.0625318288803101</threshold>
            <left_node>1</left_node>
            <right_val>-0.3903428018093109</right_val></_>
          <_>
            <!-- node 1 -->
            <feature>
              <rects>
                <_>
                  2 0 6 2 -1.</_>
                <_>
                  4 0 2 2 3.</_></rects>
              <tilted>0</tilted></feature>
            <threshold>-0.0176668800413609</threshold>
            <left_val>0.7776213884353638</left_val>
            <right_val>-0.3420639932155609</right_val></_></_>
        <_>
          <!-- tree 1 -->
          <_>
            <!-- root node -->
            <feature>
              <rects>
                <_>
                  0 3 2 4 -1.</_>
                <_>
                  1 3 1 4 2.</_></rects>
              <tilted>0</tilted></feature>
            <threshold>-0.0508046485483646</threshold>
            <left_node>1</left_node>
            <right_val>-0.1603960990905762</right_val></_>
          <_>
            <!-- node 1 -->
            <feature>
              <rects>
                <_>
                  1 2 1 2 -1.</_>
                <_>
                  1 3 1 1 2.</_></rects>
              <tilted>0</tilted></feature>
            <threshold>-1.1806660040747374e-04</threshold>
            <left_val>0.6120787262916565</left_val>
            <right_val>-0.0851983129978180</right_val></_></_>
        <_>
          <!-- tree 2 -->
          <_>
            <!-- root node -->
            <feature>
              <rects>
                <_>
                  8 4 2 1 -1.</_>
                <_>
                  9 4 1 1 2.</_></rects>
              <tilted>0</tilted></feature>
            <threshold>0.0135855600237846</threshold>
            <left_node>1</left_node>
            <right_val>0.3928523063659668</right_val></_>
          <_>
            <!-- node 1 -->
            <feature>
              <rects>
                <_>
                  4 5 5 3 -1.</_>
                <_>
                  4 6 5 1 3.</_></rects>
              <tilted>0</tilted></feature>
            <threshold>0.0352952107787132</threshold>
            <left_val>-0.2721225023269653</left_val>
            <right_val>0.2564460039138794</right_val></_></_>
        <_>
          <!-- tree 3 -->
          <_>
            <!-- root node -->
            <feature>
              <rects>
                <_>
                  2 0 2 2 -1.</_>
                <_>
                  2 0 1 1 2.</_>
                <_>
                  3 1 1 1 2.</_></rects>
              <tilted>0</tilted></feature>
            <threshold>-5.8688991703093052e-03</threshold>
            <left_val>0.2388750016689301</left_val>
            <right_node>1</right_node></_>
          <_>
            <!-- node 1 -->
            <feature>
              <rects>
                <_>
                  2 1 6 8 -1.</_>
                <_>
                  2 5 6 4 2.</_></rects>
              <tilted>0</tilted></feature>
            <threshold>0.1999336034059525</threshold>
            <left_val>-0.3125357925891876</left_val>
            <right_val>0.1442940980195999</right_val></_></_>
        <_>
          <!-- tree 4 -->
          <_>
            <!-- root node -->
            <feature>
              <rects>
                <_>
                  2 1 6 9 -1.</_>
                <_>
                  2 4 6 3 3.</_></rects>
              <tilted>0</tilted></feature>
            <threshold>-0.3571662008762360</threshold>
            <left_val>0.3939576148986816</left_val>
            <right_node>1</right_node></_>
          <_>
            <!-- node 1 -->
            <feature>
              <rects>
                <_>
                  5 7 1 2 -1.</_>
                <_>
                  5 8 1 1 2.</_></rects>
              <tilted>0</tilted></feature>
            <threshold>-2.1899399871472269e-04</threshold>
            <left_val>0.0659894719719887</left_val>
            <right_val>-0.3237642943859100</right_val></_></_>
        <_>
          <!-- tree 5 -->
          <_>
            <!-- root node -->
            <feature>
              <rects>
                <_>
                  7 3 3 3 -1.</_>
                <_>
                  8 3 1 3 3.</_></rects>
              <tilted>0</tilted></feature>
            <threshold>0.0222481004893780</threshold>
            <left_node>1</left_node>
            <right_val>0.3127892017364502</right_val></_>
          <_>
            <!-- node 1 -->
            <feature>
              <rects>
                <_>
                  7 1 2 4 -1.</_>
                <_>
                  7 1 1 2 2.</_>
                <_>
                  8 3 1 2 2.</_></rects>
              <tilted>0</tilted></feature>
            <threshold>-0.0161200296133757</threshold>
            <left_val>0.1894322931766510</left_val>
            <right_val>-0.2592096924781799</right_val></_></_>
        <_>
          <!-- tree 6 -->
          <_>
            <!-- root node -->
            <feature>
              <rects>
                <_>
                  9 0 1 4 -1.</_>
                <_>
                  9 2 1 2 2.</_></rects>
              <tilted>0</tilted></feature>
            <threshold>-0.0331057198345661</threshold>
            <left_val>-0.4134398102760315</left_val>
            <right_node>1</right_node></_>
          <_>
            <!-- node 1 -->
            <feature>
              <rects>
                <_>
                  4 0 2 1 -1.</_>
                <_>
                  5 0 1 1 2.</_></rects>
              <tilted>0</tilted></feature>
            <threshold>-0.0132834604009986</threshold>
            <left_val>-0.4989669024944305</left_val>
            <right_val>0.1422201991081238</right_val></_></_>
        <_>
          <!-- tree 7 -->
          <_>
            <!-- root node -->
            <feature>
              <rects>
                <_>
                  3 0 1 3 -1.</_>
                <_>
                  3 1 1 1 3.</_></rects>
              <tilted>0</tilted></feature>
            <threshold>0.0146457599475980</threshold>
            <left_node>1</left_node>
            <right_val>0.3664816915988922</right_val></_>
          <_>
            <!-- node 1 -->
            <feature>
              <rects>
                <_>
                  2 0 4 3 -1.</_>
                <_>
                  2 1 4 1 3.</_></rects>
              <tilted>0</tilted></feature>
            <threshold>-0.0159120894968510</threshold>
            <left_val>0.1537036001682281</left_val>
            <right_val>-0.3133929967880249</right_val></_></_>
        <_>
          <!-- tree 8 -->
          <_>
            <!-- root node -->
            <feature>
              <rects>
                <_>
                  3 0 3 4 -1.</_>
                <_>
                  4 0 1 4 3.</_></rects>
              <tilted>0</tilted></feature>
            <threshold>-0.0459779016673565</threshold>
            <left_val>-0.5906875729560852</left_val>
            <right_node>1</right_node></_>
          <_>
            <!-- node 1 -->
            <feature>
              <rects>
                <_>
                  0 8 4 2 -1.</_>
                <_>
                  2 8 2 2 2.</_></rects>
              <tilted>0</tilted></feature>
            <threshold>-0.0255674999207258</threshold>
            <left_val>0.2657327055931091</left_val>
            <right_val>-0.1113295033574104</right_val></_></_>
        <_>
          <!-- tree 9 -->
          <_>
            <!-- root node -->
            <feature>
              <rects>
                <_>
                  4 0 3 5 -1.</_>
                <_>
                  5 0 1 5 3.</_></rects>
              <tilted>0</tilted></feature>
            <threshold>-0.0685595124959946</threshold>
            <left_val>-0.8269035816192627</left_val>
            <right_node>1</right_node></_>
          <_>
            <!-- node 1 -->
            <feature>
              <rects>
                <_>
                  3 0 2 2 -1.</_>
                <_>
                  4 0 1 2 2.</_></rects>
              <tilted>0</tilted></feature>
            <threshold>0.0203992500901222</threshold>
            <left_val>0.0759746730327606</left_val>
            <right_val>-0.5178958177566528</right_val></_></_>
        <_>
          <!-- tree 10 -->
          <_>
            <!-- root node -->
            <feature>
              <rects>
                <_>
                  2 8 8 2 -1.</_>
                <_>
                  2 9 8 1 2.</_></rects>
              <tilted>0</tilted></feature>
            <threshold>0.0375564508140087</threshold>
            <left_node>1</left_node>
            <right_val>0.2610110938549042</right_val></_>
          <_>
            <!-- node 1 -->
            <feature>
              <rects>
                <_>
                  8 9 2 1 -1.</_>
                <_>
                  9 9 1 1 2.</_></rects>
              <tilted>0</tilted></feature>
            <threshold>1.8993810226675123e-04</threshold>
            <left_val>-0.2994543910026550</left_val>
            <right_val>0.0532010495662689</right_val></_></_>
        <_>
          <!-- tree 11 -->
          <_>
            <!-- root node -->
            <feature>
              <rects>
                <_>
                  1 3 8 5 -1.</_>
                <_>
                  5 3 4 5 2.</_></rects>
              <tilted>0</tilted></feature>
            <threshold>0.4668765962123871</threshold>
            <left_node>1</left_node>
            <right_val>0.6056606769561768</right_val></_>
          <_>
            <!-- node 1 -->
            <feature>
              <rects>
                <_>
                  7 1 1 6 -1.</_>
                <_>
                  7 3 1 2 3.</_></rects>
              <tilted>0</tilted></feature>
            <threshold>-0.0113666197285056</threshold>
            <left_val>0.1259534955024719</left_val>
            <right_val>-0.2237128019332886</right_val></_></_>
        <_>
          <!-- tree 12 -->
          <_>
            <!-- root node -->
            <feature>
              <rects>
                <_>
                  6 2 4 2 -1.</_>
                <_>
                  8 2 2 2 2.</_></rects>
              <tilted>0</tilted></feature>
            <threshold>-0.0461175590753555</threshold>
            <left_val>0.3673722147941589</left_val>
            <right_node>1</right_node></_>
          <_>
            <!-- node 1 -->
            <feature>
              <rects>
                <_>
                  7 1 1 2 -1.</_>
                <_>
                  7 2 1 1 2.</_></rects>
              <tilted>0</tilted></feature>
            <threshold>-2.7286668773740530e-04</threshold>
            <left_val>0.0681922435760498</left_val>
            <right_val>-0.3544614911079407</right_val></_></_>
        <_>
          <!-- tree 13 -->
          <_>
            <!-- root node -->
            <feature>
              <rects>
                <_>
                  0 0 1 2 -1.</_>
                <_>
                  0 1 1 1 2.</_></rects>
              <tilted>0</tilted></feature>
            <threshold>-6.9998521357774734e-03</threshold>
            <left_val>-0.3087565898895264</left_val>
            <right_node>1</right_node></_>
          <_>
            <!-- node 1 -->
            <feature>
              <rects>
                <_>
                  0 0 1 3 -1.</_>
                <_>
                  0 1 1 1 3.</_></rects>
              <tilted>0</tilted></feature>
            <threshold>4.7449339181184769e-03</threshold>
            <left_val>0.1954316943883896</left_val>
            <right_val>-0.1856517046689987</right_val></_></_>
        <_>
          <!-- tree 14 -->
          <_>
            <!-- root node -->
            <feature>
              <rects>
                <_>
                  0 0 10 4 -1.</_>
                <_>
                  5 0 5 4 2.</_></rects>
              <tilted>0</tilted></feature>
            <threshold>0.5275890231132507</threshold>
            <left_node>1</left_node>
            <right_val>-0.6813563704490662</right_val></_>
          <_>
            <!-- node 1 -->
            <feature>
              <rects>
                <_>
                  8 0 2 1 -1.</_>
                <_>
                  9 0 1 1 2.</_></rects>
              <tilted>0</tilted></feature>
            <threshold>-6.1928718350827694e-03</threshold>
            <left_val>-0.2358493953943253</left_val>
            <right_val>0.1152340024709702</right_val></_></_>
        <_>
          <!-- tree 15 -->
          <_>
            <!-- root node -->
            <feature>
              <rects>
                <_>
                  1 0 2 2 -1.</_>
                <_>
                  1 0 1 1 2.</_>
                <_>
                  2 1 1 1 2.</_></rects>
              <tilted>0</tilted></feature>
            <threshold>-0.0140267498791218</threshold>
            <left_val>0.3585267961025238</left_val>
            <right_node>1</right_node></_>
          <_>
            <!-- node 1 -->
            <feature>
              <rects>
                <_>
                  1 0 2 2 -1.</_>
                <_>
                  1 0 1 1 2.</_>
                <_>
                  2 1 1 1 2.</_></rects>
              <tilted>0</tilted></feature>
            <threshold>8.3426609635353088e-03</threshold>
            <left_val>-0.1613992005586624</left_val>
            <right_val>0.2868384122848511</right_val></_></_>
        <_>
          <!-- tree 16 -->
          <_>
            <!-- root node -->
            <feature>
              <rects>
                <_>
                  3 7 3 2 -1.</_>
                <_>
                  4 7 1 2 3.</_></rects>
              <tilted>0</tilted></feature>
            <threshold>-0.0324219688773155</threshold>
            <left_val>-0.5659424066543579</left_val>
            <right_node>1</right_node></_>
          <_>
            <!-- node 1 -->
            <feature>
              <rects>
                <_>
                  4 1 5 3 -1.</_>
                <_>
                  4 2 5 1 3.</_></rects>
              <tilted>0</tilted></feature>
            <threshold>-0.0269832294434309</threshold>
            <left_val>0.2753377854824066</left_val>
            <right_val>-0.0558743290603161</right_val></_></_>
        <_>
          <!-- tree 17 -->
          <_>
            <!-- root node -->
            <feature>
              <rects>
                <_>
                  5 3 1 2 -1.</_>
                <_>
                  5 4 1 1 2.</_></rects>
              <tilted>0</tilted></feature>
            <threshold>-1.0129089787369594e-04</threshold>
            <left_val>0.1430976986885071</left_val>
            <right_node>1</right_node></_>
          <_>
            <!-- node 1 -->
            <feature>
              <rects>
                <_>
                  2 2 5 6 -1.</_>
                <_>
                  2 5 5 3 2.</_></rects>
              <tilted>0</tilted></feature>
            <threshold>0.1060210019350052</threshold>
            <left_val>-0.3908231854438782</left_val>
            <right_val>0.0133976899087429</right_val></_></_>
        <_>
          <!-- tree 18 -->
          <_>
            <!-- root node -->
            <feature>
              <rects>
                <_>
                  7 4 3 3 -1.</_>
                <_>
                  8 4 1 3 3.</_></rects>
              <tilted>0</tilted></feature>
            <threshold>-0.0272067394107580</threshold>
            <left_val>0.2128531932830811</left_val>
            <right_node>1</right_node></_>
          <_>
            <!-- node 1 -->
            <feature>
              <rects>
                <_>
                  4 2 6 8 -1.</_>
                <_>
                  7 2 3 8 2.</_></rects>
              <tilted>0</tilted></feature>
            <threshold>0.1998573988676071</threshold>
            <left_val>-0.2622463107109070</left_val>
            <right_val>0.1437371969223022</right_val></_></_>
        <_>
          <!-- tree 19 -->
          <_>
            <!-- root node -->
            <feature>
              <rects>
                <_>
                  4 6 3 3 -1.</_>
                <_>
                  5 6 1 3 3.</_></rects>
              <tilted>0</tilted></feature>
            <threshold>-0.0529562011361122</threshold>
            <left_val>-0.6540262103080750</left_val>
            <right_node>1</right_node></_>
          <_>
            <!-- node 1 -->
            <feature>
              <rects>
                <_>
                  7 0 2 2 -1.</_>
                <_>
                  7 0 1 1 2.</_>
                <_>
                  8 1 1 1 2.</_></rects>
              <tilted>0</tilted></feature>
            <threshold>-9.7278114408254623e-03</threshold>
            <left_val>0.3879128992557526</left_val>
            <right_val>-0.0295532606542110</right_val></_></_>
        <_>
          <!-- tree 20 -->
          <_>
            <!-- root node -->
            <feature>
              <rects>
                <_>
                  1 8 4 2 -1.</_>
                <_>
                  1 8 2 1 2.</_>
                <_>
                  3 9 2 1 2.</_></rects>
              <tilted>0</tilted></feature>
            <threshold>-0.0160685293376446</threshold>
            <left_val>0.2449499070644379</left_val>
            <right_node>1</right_node></_>
          <_>
            <!-- node 1 -->
            <feature>
              <rects>
                <_>
                  4 3 3 1 -1.</_>
                <_>
                  5 3 1 1 3.</_></rects>
              <tilted>0</tilted></feature>
            <threshold>5.1904241554439068e-03</threshold>
            <left_val>0.0219123698771000</left_val>
            <right_val>-0.3722389936447144</right_val></_></_>
        <_>
          <!-- tree 21 -->
          <_>
            <!-- root node -->
            <feature>
              <rects>
                <_>
                  6 0 1 3 -1.</_>
                <_>
                  6 1 1 1 3.</_></rects>
              <tilted>0</tilted></feature>
            <threshold>-0.0109598599374294</threshold>
            <left_val>0.2410504072904587</left_val>
            <right_node>1</right_node></_>
          <_>
            <!-- node 1 -->
            <feature>
              <rects>
                <_>
                  5 1 4 2 -1.</_>
                <_>
                  5 1 2 1 2.</_>
                <_>
                  7 2 2 1 2.</_></rects>
              <tilted>0</tilted></feature>
            <threshold>9.7925923764705658e-03</threshold>
            <left_val>-0.2264222949743271</left_val>
            <right_val>0.1458206027746201</right_val></_></_>
        <_>
          <!-- tree 22 -->
          <_>
            <!-- root node -->
            <feature>
              <rects>
                <_>
                  1 5 7 2 -1.</_>
                <_>
                  1 6 7 1 2.</_></rects>
              <tilted>0</tilted></feature>
            <threshold>0.0412531308829784</threshold>
            <left_node>1</left_node>
            <right_val>0.2255426049232483</right_val></_>
          <_>
            <!-- node 1 -->
            <feature>
              <rects>
                <_>
                  8 0 2 1 -1.</_>
                <_>
                  9 0 1 1 2.</_></rects>
              <tilted>0</tilted></feature>
            <threshold>6.0146870091557503e-03</threshold>
            <left_val>0.0123452004045248</left_val>
            <right_val>-0.3577908873558044</right_val></_></_>
        <_>
          <!-- tree 23 -->
          <_>
            <!-- root node -->
            <feature>
              <rects>
                <_>
                  5 8 1 2 -1.</_>
                <_>
                  5 9 1 1 2.</_></rects>
              <tilted>0</tilted></feature>
            <threshold>-0.0177876893430948</threshold>
            <left_val>-0.5844469070434570</left_val>
            <right_node>1</right_node></_>
          <_>
            <!-- node 1 -->
            <feature>
              <rects>
                <_>
                  5 6 3 4 -1.</_>
                <_>
                  6 6 1 4 3.</_></rects>
              <tilted>0</tilted></feature>
            <threshold>-0.0818660929799080</threshold>
            <left_val>-0.6619715094566345</left_val>
            <right_val>0.0648154467344284</right_val></_></_>
        <_>
          <!-- tree 24 -->
          <_>
            <!-- root node -->
            <feature>
              <rects>
                <_>
                  5 8 4 2 -1.</_>
                <_>
                  5 8 2 1 2.</_>
                <_>
                  7 9 2 1 2.</_></rects>
              <tilted>0</tilted></feature>
            <threshold>0.0118529796600342</threshold>
            <left_node>1</left_node>
            <right_val>0.2256646007299423</right_val></_>
          <_>
            <!-- node 1 -->
            <feature>
              <rects>
                <_>
                  1 7 9 1 -1.</_>
                <_>
                  4 7 3 1 3.</_></rects>
              <tilted>0</tilted></feature>
            <threshold>-0.0883565694093704</threshold>
            <left_val>0.2674787044525146</left_val>
            <right_val>-0.1965012997388840</right_val></_></_>
        <_>
          <!-- tree 25 -->
          <_>
            <!-- root node -->
            <feature>
              <rects>
                <_>
                  0 7 3 3 -1.</_>
                <_>
                  1 7 1 3 3.</_></rects>
              <tilted>0</tilted></feature>
            <threshold>-0.0161926206201315</threshold>
            <left_node>1</left_node>
            <right_val>-0.1138307005167007</right_val></_>
          <_>
            <!-- node 1 -->
            <feature>
              <rects>
                <_>
                  0 8 6 2 -1.</_>
                <_>
                  3 8 3 2 2.</_></rects>
              <tilted>0</tilted></feature>
            <threshold>-0.2458719015121460</threshold>
            <left_val>-0.7281568050384521</left_val>
            <right_val>0.2709690928459167</right_val></_></_></trees>
      <stage_threshold>-1.4576330184936523</stage_threshold>
      <parent>2</parent>
      <next>-1</next></_>
    <_>
      <!-- stage 4 -->
      <trees>
        <_>
          <!-- tree 0 -->
          <_>
            <!-- root node -->
            <feature>
              <rects>
                <_>
                  2 0 6 2 -1.</_>
                <_>
                  2 1 6 1 2.</_></rects>
              <tilted>0</tilted></feature>
            <threshold>-0.0769767165184021</threshold>
            <left_node>1</left_node>
            <right_val>-0.3215664923191071</right_val></_>
          <_>
            <!-- node 1 -->
            <feature>
              <rects>
                <_>
                  0 0 9 3 -1.</_>
                <_>
                  3 0 3 3 3.</_></rects>
              <tilted>0</tilted></feature>
            <threshold>-0.1239613965153694</threshold>
            <left_val>0.7508292794227600</left_val>
            <right_val>-0.3113150894641876</right_val></_></_>
        <_>
          <!-- tree 1 -->
          <_>
            <!-- root node -->
            <feature>
              <rects>
                <_>
                  6 2 4 7 -1.</_>
                <_>
                  8 2 2 7 2.</_></rects>
              <tilted>0</tilted></feature>
            <threshold>0.2674685120582581</threshold>
            <left_node>1</left_node>
            <right_val>0.5330898165702820</right_val></_>
          <_>
            <!-- node 1 -->
            <feature>
              <rects>
                <_>
                  0 2 2 5 -1.</_>
                <_>
                  1 2 1 5 2.</_></rects>
              <tilted>0</tilted></feature>
            <threshold>-0.0627667233347893</threshold>
            <left_val>0.2338777035474777</left_val>
            <right_val>-0.2725717127323151</right_val></_></_>
        <_>
          <!-- tree 2 -->
          <_>
            <!-- root node -->
            <feature>
              <rects>
                <_>
                  2 1 1 2 -1.</_>
                <_>
                  2 2 1 1 2.</_></rects>
              <tilted>0</tilted></feature>
            <threshold>-2.3876059276517481e-04</threshold>
            <left_node>1</left_node>
            <right_val>-0.2612495124340057</right_val></_>
          <_>
            <!-- node 1 -->
            <feature>
              <rects>
                <_>
                  1 0 2 2 -1.</_>
                <_>
                  1 0 1 1 2.</_>
                <_>
                  2 1 1 1 2.</_></rects>
              <tilted>0</tilted></feature>
            <threshold>-1.6140750376507640e-03</threshold>
            <left_val>0.3465358912944794</left_val>
            <right_val>-0.1219211965799332</right_val></_></_>
        <_>
          <!-- tree 3 -->
          <_>
            <!-- root node -->
            <feature>
              <rects>
                <_>
                  4 1 4 8 -1.</_>
                <_>
                  4 5 4 4 2.</_></rects>
              <tilted>0</tilted></feature>
            <threshold>0.1054837033152580</threshold>
            <left_node>1</left_node>
            <right_val>0.1981417983770370</right_val></_>
          <_>
            <!-- node 1 -->
            <feature>
              <rects>
                <_>
                  2 0 1 2 -1.</_>
                <_>
                  2 1 1 1 2.</_></rects>
              <tilted>0</tilted></feature>
            <threshold>0.0132118696346879</threshold>
            <left_val>-0.3124302029609680</left_val>
            <right_val>0.3346554934978485</right_val></_></_>
        <_>
          <!-- tree 4 -->
          <_>
            <!-- root node -->
            <feature>
              <rects>
                <_>
                  4 3 1 2 -1.</_>
                <_>
                  4 4 1 1 2.</_></rects>
              <tilted>0</tilted></feature>
            <threshold>-2.5264389114454389e-04</threshold>
            <left_val>0.1978275030851364</left_val>
            <right_node>1</right_node></_>
          <_>
            <!-- node 1 -->
            <feature>
              <rects>
                <_>
                  3 7 1 2 -1.</_>
                <_>
                  3 8 1 1 2.</_></rects>
              <tilted>0</tilted></feature>
            <threshold>-2.8121960349380970e-04</threshold>
            <left_val>0.0263764709234238</left_val>
            <right_val>-0.4229491949081421</right_val></_></_>
        <_>
          <!-- tree 5 -->
          <_>
            <!-- root node -->
            <feature>
              <rects>
                <_>
                  5 0 3 5 -1.</_>
                <_>
                  6 0 1 5 3.</_></rects>
              <tilted>0</tilted></feature>
            <threshold>-0.0749836489558220</threshold>
            <left_val>-0.6178616285324097</left_val>
            <right_node>1</right_node></_>
          <_>
            <!-- node 1 -->
            <feature>
              <rects>
                <_>
                  1 6 2 4 -1.</_>
                <_>
                  1 8 2 2 2.</_></rects>
              <tilted>0</tilted></feature>
            <threshold>0.0372950881719589</threshold>
            <left_val>-0.0896433666348457</left_val>
            <right_val>0.2729004919528961</right_val></_></_>
        <_>
          <!-- tree 6 -->
          <_>
            <!-- root node -->
            <feature>
              <rects>
                <_>
                  4 2 6 3 -1.</_>
                <_>
                  6 2 2 3 3.</_></rects>
              <tilted>0</tilted></feature>
            <threshold>-0.0610242001712322</threshold>
            <left_node>1</left_node>
            <right_val>-0.1436796039342880</right_val></_>
          <_>
            <!-- node 1 -->
            <feature>
              <rects>
                <_>
                  7 2 2 2 -1.</_>
                <_>
                  7 3 2 1 2.</_></rects>
              <tilted>0</tilted></feature>
            <threshold>-1.2215420429129153e-04</threshold>
            <left_val>0.3642607927322388</left_val>
            <right_val>-0.1765694022178650</right_val></_></_>
        <_>
          <!-- tree 7 -->
          <_>
            <!-- root node -->
            <feature>
              <rects>
                <_>
                  7 6 1 2 -1.</_>
                <_>
                  7 7 1 1 2.</_></rects>
              <tilted>0</tilted></feature>
            <threshold>-9.9502016382757574e-05</threshold>
            <left_val>0.1572984009981155</left_val>
            <right_node>1</right_node></_>
          <_>
            <!-- node 1 -->
            <feature>
              <rects>
                <_>
                  2 1 6 9 -1.</_>
                <_>
                  2 4 6 3 3.</_></rects>
              <tilted>0</tilted></feature>
            <threshold>-0.2973931133747101</threshold>
            <left_val>0.1126509010791779</left_val>
            <right_val>-0.3369925916194916</right_val></_></_>
        <_>
          <!-- tree 8 -->
          <_>
            <!-- root node -->
            <feature>
              <rects>
                <_>
                  2 0 5 8 -1.</_>
                <_>
                  2 4 5 4 2.</_></rects>
              <tilted>0</tilted></feature>
            <threshold>0.2726872861385345</threshold>
            <left_node>1</left_node>
            <right_val>0.3828476071357727</right_val></_>
          <_>
            <!-- node 1 -->
            <feature>
              <rects>
                <_>
                  1 5 2 1 -1.</_>
                <_>
                  2 5 1 1 2.</_></rects>
              <tilted>0</tilted></feature>
            <threshold>-1.0925829701591283e-04</threshold>
            <left_val>0.0798252373933792</left_val>
            <right_val>-0.2794884145259857</right_val></_></_>
        <_>
          <!-- tree 9 -->
          <_>
            <!-- root node -->
            <feature>
              <rects>
                <_>
                  2 0 3 5 -1.</_>
                <_>
                  3 0 1 5 3.</_></rects>
              <tilted>0</tilted></feature>
            <threshold>-0.0831930562853813</threshold>
            <left_val>-0.7387251853942871</left_val>
            <right_node>1</right_node></_>
          <_>
            <!-- node 1 -->
            <feature>
              <rects>
                <_>
                  0 0 1 2 -1.</_>
                <_>
                  0 1 1 1 2.</_></rects>
              <tilted>0</tilted></feature>
            <threshold>5.3246198222041130e-03</threshold>
            <left_val>0.1115014031529427</left_val>
            <right_val>-0.2472697943449020</right_val></_></_>
        <_>
          <!-- tree 10 -->
          <_>
            <!-- root node -->
            <feature>
              <rects>
                <_>
                  0 0 1 2 -1.</_>
                <_>
                  0 1 1 1 2.</_></rects>
              <tilted>0</tilted></feature>
            <threshold>-4.3137287721037865e-03</threshold>
            <left_val>-0.2868123948574066</left_val>
            <right_node>1</right_node></_>
          <_>
            <!-- node 1 -->
            <feature>
              <rects>
                <_>
                  0 0 6 3 -1.</_>
                <_>
                  0 1 6 1 3.</_></rects>
              <tilted>0</tilted></feature>
            <threshold>-0.0228776093572378</threshold>
            <left_val>0.3358550965785980</left_val>
            <right_val>-0.0271759796887636</right_val></_></_>
        <_>
          <!-- tree 11 -->
          <_>
            <!-- root node -->
            <feature>
              <rects>
                <_>
                  2 2 1 2 -1.</_>
                <_>
                  2 3 1 1 2.</_></rects>
              <tilted>0</tilted></feature>
            <threshold>-1.0658679821062833e-04</threshold>
            <left_val>0.1240568980574608</left_val>
            <right_node>1</right_node></_>
          <_>
            <!-- node 1 -->
            <feature>
              <rects>
                <_>
                  3 3 6 4 -1.</_>
                <_>
                  6 3 3 4 2.</_></rects>
              <tilted>0</tilted></feature>
            <threshold>-0.0582473389804363</threshold>
            <left_val>0.1252761036157608</left_val>
            <right_val>-0.4450860023498535</right_val></_></_>
        <_>
          <!-- tree 12 -->
          <_>
            <!-- root node -->
            <feature>
              <rects>
                <_>
                  7 4 3 6 -1.</_>
                <_>
                  8 4 1 6 3.</_></rects>
              <tilted>0</tilted></feature>
            <threshold>0.0632757619023323</threshold>
            <left_node>1</left_node>
            <right_val>0.3297330141067505</right_val></_>
          <_>
            <!-- node 1 -->
            <feature>
              <rects>
                <_>
                  1 5 6 3 -1.</_>
                <_>
                  1 6 6 1 3.</_></rects>
              <tilted>0</tilted></feature>
            <threshold>0.0150795504450798</threshold>
            <left_val>-0.2236966043710709</left_val>
            <right_val>0.0924760326743126</right_val></_></_>
        <_>
          <!-- tree 13 -->
          <_>
            <!-- root node -->
            <feature>
              <rects>
                <_>
                  3 0 2 2 -1.</_>
                <_>
                  4 0 1 2 2.</_></rects>
              <tilted>0</tilted></feature>
            <threshold>-0.0206514894962311</threshold>
            <left_val>-0.3644494116306305</left_val>
            <right_node>1</right_node></_>
          <_>
            <!-- node 1 -->
            <feature>
              <rects>
                <_>
                  0 1 3 6 -1.</_>
                <_>
                  0 4 3 3 2.</_></rects>
              <tilted>0</tilted></feature>
            <threshold>0.1642999053001404</threshold>
            <left_val>0.1056931018829346</left_val>
            <right_val>-0.5124210715293884</right_val></_></_>
        <_>
          <!-- tree 14 -->
          <_>
            <!-- root node -->
            <feature>
              <rects>
                <_>
                  4 8 3 1 -1.</_>
                <_>
                  5 8 1 1 3.</_></rects>
              <tilted>0</tilted></feature>
            <threshold>0.0175532400608063</threshold>
            <left_node>1</left_node>
            <right_val>-0.5284034013748169</right_val></_>
          <_>
            <!-- node 1 -->
            <feature>
              <rects>
                <_>
                  3 0 4 2 -1.</_>
                <_>
                  5 0 2 2 2.</_></rects>
              <tilted>0</tilted></feature>
            <threshold>0.0603980310261250</threshold>
            <left_val>0.0841298773884773</left_val>
            <right_val>-0.4237971007823944</right_val></_></_>
        <_>
          <!-- tree 15 -->
          <_>
            <!-- root node -->
            <feature>
              <rects>
                <_>
                  7 1 2 2 -1.</_>
                <_>
                  7 1 1 1 2.</_>
                <_>
                  8 2 1 1 2.</_></rects>
              <tilted>0</tilted></feature>
            <threshold>7.7890739776194096e-03</threshold>
            <left_node>1</left_node>
            <right_val>0.2406705021858215</right_val></_>
          <_>
            <!-- node 1 -->
            <feature>
              <rects>
                <_>
                  6 0 2 2 -1.</_>
                <_>
                  6 0 1 1 2.</_>
                <_>
                  7 1 1 1 2.</_></rects>
              <tilted>0</tilted></feature>
            <threshold>-7.3677687905728817e-03</threshold>
            <left_val>0.2262108027935028</left_val>
            <right_val>-0.1834252029657364</right_val></_></_>
        <_>
          <!-- tree 16 -->
          <_>
            <!-- root node -->
            <feature>
              <rects>
                <_>
                  4 2 2 1 -1.</_>
                <_>
                  5 2 1 1 2.</_></rects>
              <tilted>0</tilted></feature>
            <threshold>-5.2308170124888420e-03</threshold>
            <left_val>-0.2976692020893097</left_val>
            <right_node>1</right_node></_>
          <_>
            <!-- node 1 -->
            <feature>
              <rects>
                <_>
                  0 8 6 1 -1.</_>
                <_>
                  2 8 2 1 3.</_></rects>
              <tilted>0</tilted></feature>
            <threshold>-0.0197714399546385</threshold>
            <left_val>0.2592988014221191</left_val>
            <right_val>-0.0583983883261681</right_val></_></_>
        <_>
          <!-- tree 17 -->
          <_>
            <!-- root node -->
            <feature>
              <rects>
                <_>
                  5 0 2 3 -1.</_>
                <_>
                  5 1 2 1 3.</_></rects>
              <tilted>0</tilted></feature>
            <threshold>-0.0135559597983956</threshold>
            <left_node>1</left_node>
            <right_val>-0.1163387000560760</right_val></_>
          <_>
            <!-- node 1 -->
            <feature>
              <rects>
                <_>
                  8 0 1 3 -1.</_>
                <_>
                  8 1 1 1 3.</_></rects>
              <tilted>0</tilted></feature>
            <threshold>-0.0134375803172588</threshold>
            <left_val>-0.4359273910522461</left_val>
            <right_val>0.2951034009456635</right_val></_></_>
        <_>
          <!-- tree 18 -->
          <_>
            <!-- root node -->
            <feature>
              <rects>
                <_>
                  0 0 10 6 -1.</_>
                <_>
                  5 0 5 6 2.</_></rects>
              <tilted>0</tilted></feature>
            <threshold>0.6793990731239319</threshold>
            <left_node>1</left_node>
            <right_val>-0.6265062093734741</right_val></_>
          <_>
            <!-- node 1 -->
            <feature>
              <rects>
                <_>
                  4 7 1 2 -1.</_>
                <_>
                  4 8 1 1 2.</_></rects>
              <tilted>0</tilted></feature>
            <threshold>-0.0161906406283379</threshold>
            <left_val>-0.5656998753547668</left_val>
            <right_val>0.0645385384559631</right_val></_></_>
        <_>
          <!-- tree 19 -->
          <_>
            <!-- root node -->
            <feature>
              <rects>
                <_>
                  0 1 4 2 -1.</_>
                <_>
                  2 1 2 2 2.</_></rects>
              <tilted>0</tilted></feature>
            <threshold>0.0792025476694107</threshold>
            <left_node>1</left_node>
            <right_val>0.4347477853298187</right_val></_>
          <_>
            <!-- node 1 -->
            <feature>
              <rects>
                <_>
                  7 8 3 2 -1.</_>
                <_>
                  7 9 3 1 2.</_></rects>
              <tilted>0</tilted></feature>
            <threshold>0.0313497595489025</threshold>
            <left_val>-0.1266500949859619</left_val>
            <right_val>0.2783769965171814</right_val></_></_>
        <_>
          <!-- tree 20 -->
          <_>
            <!-- root node -->
            <feature>
              <rects>
                <_>
                  9 0 1 2 -1.</_>
                <_>
                  9 1 1 1 2.</_></rects>
              <tilted>0</tilted></feature>
            <threshold>5.7229530066251755e-03</threshold>
            <left_node>1</left_node>
            <right_val>-0.2521176934242249</right_val></_>
          <_>
            <!-- node 1 -->
            <feature>
              <rects>
                <_>
                  9 0 1 2 -1.</_>
                <_>
                  9 1 1 1 2.</_></rects>
              <tilted>0</tilted></feature>
            <threshold>-4.3715150095522404e-03</threshold>
            <left_val>-0.1353753954172134</left_val>
            <right_val>0.1863819062709808</right_val></_></_>
        <_>
          <!-- tree 21 -->
          <_>
            <!-- root node -->
            <feature>
              <rects>
                <_>
                  7 5 3 2 -1.</_>
                <_>
                  8 5 1 2 3.</_></rects>
              <tilted>0</tilted></feature>
            <threshold>-0.0174226500093937</threshold>
            <left_val>0.1885160952806473</left_val>
            <right_node>1</right_node></_>
          <_>
            <!-- node 1 -->
            <feature>
              <rects>
                <_>
                  2 3 6 6 -1.</_>
                <_>
                  4 3 2 6 3.</_></rects>
              <tilted>0</tilted></feature>
            <threshold>-0.0748910009860992</threshold>
            <left_val>0.1103653013706207</left_val>
            <right_val>-0.2238646000623703</right_val></_></_>
        <_>
          <!-- tree 22 -->
          <_>
            <!-- root node -->
            <feature>
              <rects>
                <_>
                  5 8 1 2 -1.</_>
                <_>
                  5 9 1 1 2.</_></rects>
              <tilted>0</tilted></feature>
            <threshold>-2.4413519713561982e-04</threshold>
            <left_val>0.1385273039340973</left_val>
            <right_node>1</right_node></_>
          <_>
            <!-- node 1 -->
            <feature>
              <rects>
                <_>
                  6 0 1 8 -1.</_>
                <_>
                  6 4 1 4 2.</_></rects>
              <tilted>0</tilted></feature>
            <threshold>-0.0295250192284584</threshold>
            <left_val>0.0662363171577454</left_val>
            <right_val>-0.3359524905681610</right_val></_></_>
        <_>
          <!-- tree 23 -->
          <_>
            <!-- root node -->
            <feature>
              <rects>
                <_>
                  2 1 7 3 -1.</_>
                <_>
                  2 2 7 1 3.</_></rects>
              <tilted>0</tilted></feature>
            <threshold>-0.0179191809147596</threshold>
            <left_val>0.1471997052431107</left_val>
            <right_node>1</right_node></_>
          <_>
            <!-- node 1 -->
            <feature>
              <rects>
                <_>
                  5 0 3 2 -1.</_>
                <_>
                  5 1 3 1 2.</_></rects>
              <tilted>0</tilted></feature>
            <threshold>0.0167960394173861</threshold>
            <left_val>-0.2351606935262680</left_val>
            <right_val>0.1918570995330811</right_val></_></_>
        <_>
          <!-- tree 24 -->
          <_>
            <!-- root node -->
            <feature>
              <rects>
                <_>
                  1 0 4 4 -1.</_>
                <_>
                  1 0 2 2 2.</_>
                <_>
                  3 2 2 2 2.</_></rects>
              <tilted>0</tilted></feature>
            <threshold>0.0495055913925171</threshold>
            <left_val>-0.0747825130820274</left_val>
            <right_node>1</right_node></_>
          <_>
            <!-- node 1 -->
            <feature>
              <rects>
                <_>
                  1 1 3 1 -1.</_>
                <_>
                  2 1 1 1 3.</_></rects>
              <tilted>0</tilted></feature>
            <threshold>-4.1279080323874950e-03</threshold>
            <left_val>0.5733150243759155</left_val>
            <right_val>-0.1100760027766228</right_val></_></_>
        <_>
          <!-- tree 25 -->
          <_>
            <!-- root node -->
            <feature>
              <rects>
                <_>
                  0 2 3 3 -1.</_>
                <_>
                  0 3 3 1 3.</_></rects>
              <tilted>0</tilted></feature>
            <threshold>-0.0386679992079735</threshold>
            <left_val>-0.4171727895736694</left_val>
            <right_node>1</right_node></_>
          <_>
            <!-- node 1 -->
            <feature>
              <rects>
                <_>
                  6 1 2 5 -1.</_>
                <_>
                  7 1 1 5 2.</_></rects>
              <tilted>0</tilted></feature>
            <threshold>-0.0756426900625229</threshold>
            <left_val>-0.7539780735969543</left_val>
            <right_val>0.0821642801165581</right_val></_></_>
        <_>
          <!-- tree 26 -->
          <_>
            <!-- root node -->
            <feature>
              <rects>
                <_>
                  0 0 6 2 -1.</_>
                <_>
                  2 0 2 2 3.</_></rects>
              <tilted>0</tilted></feature>
            <threshold>-0.1801335960626602</threshold>
            <left_val>-0.6932119727134705</left_val>
            <right_node>1</right_node></_>
          <_>
            <!-- node 1 -->
            <feature>
              <rects>
                <_>
                  2 8 2 2 -1.</_>
                <_>
                  2 8 1 1 2.</_>
                <_>
                  3 9 1 1 2.</_></rects>
              <tilted>0</tilted></feature>
            <threshold>-9.8265130072832108e-03</threshold>
            <left_val>0.2901104092597961</left_val>
            <right_val>-0.0417017303407192</right_val></_></_>
        <_>
          <!-- tree 27 -->
          <_>
            <!-- root node -->
            <feature>
              <rects>
                <_>
                  4 0 3 10 -1.</_>
                <_>
                  5 0 1 10 3.</_></rects>
              <tilted>0</tilted></feature>
            <threshold>-0.1001904010772705</threshold>
            <left_val>-0.6253526210784912</left_val>
            <right_node>1</right_node></_>
          <_>
            <!-- node 1 -->
            <feature>
              <rects>
                <_>
                  4 7 1 3 -1.</_>
                <_>
                  4 8 1 1 3.</_></rects>
              <tilted>0</tilted></feature>
            <threshold>-2.0007630519103259e-04</threshold>
            <left_val>0.1548556983470917</left_val>
            <right_val>-0.1077328994870186</right_val></_></_>
        <_>
          <!-- tree 28 -->
          <_>
            <!-- root node -->
            <feature>
              <rects>
                <_>
                  3 0 3 5 -1.</_>
                <_>
                  4 0 1 5 3.</_></rects>
              <tilted>0</tilted></feature>
            <threshold>-0.0939539521932602</threshold>
            <left_val>-0.9202343821525574</left_val>
            <right_node>1</right_node></_>
          <_>
            <!-- node 1 -->
            <feature>
              <rects>
                <_>
                  2 0 2 2 -1.</_>
                <_>
                  2 0 1 1 2.</_>
                <_>
                  3 1 1 1 2.</_></rects>
              <tilted>0</tilted></feature>
            <threshold>-0.0110043697059155</threshold>
            <left_val>0.2661046981811523</left_val>
            <right_val>-0.0466265194118023</right_val></_></_></trees>
      <stage_threshold>-1.3224079608917236</stage_threshold>
      <parent>3</parent>
      <next>-1</next></_>
    <_>
      <!-- stage 5 -->
      <trees>
        <_>
          <!-- tree 0 -->
          <_>
            <!-- root node -->
            <feature>
              <rects>
                <_>
                  2 0 6 2 -1.</_>
                <_>
                  2 1 6 1 2.</_></rects>
              <tilted>0</tilted></feature>
            <threshold>-0.0369251891970634</threshold>
            <left_node>1</left_node>
            <right_val>-0.4576554000377655</right_val></_>
          <_>
            <!-- node 1 -->
            <feature>
              <rects>
                <_>
                  0 0 9 2 -1.</_>
                <_>
                  3 0 3 2 3.</_></rects>
              <tilted>0</tilted></feature>
            <threshold>-0.0505116581916809</threshold>
            <left_val>0.6215959787368774</left_val>
            <right_val>-0.3309743106365204</right_val></_></_>
        <_>
          <!-- tree 1 -->
          <_>
            <!-- root node -->
            <feature>
              <rects>
                <_>
                  1 0 2 2 -1.</_>
                <_>
                  1 0 1 1 2.</_>
                <_>
                  2 1 1 1 2.</_></rects>
              <tilted>0</tilted></feature>
            <threshold>-0.0100490301847458</threshold>
            <left_val>0.4148404002189636</left_val>
            <right_node>1</right_node></_>
          <_>
            <!-- node 1 -->
            <feature>
              <rects>
                <_>
                  1 1 2 2 -1.</_>
                <_>
                  1 1 1 1 2.</_>
                <_>
                  2 2 1 1 2.</_></rects>
              <tilted>0</tilted></feature>
            <threshold>-9.9145257845520973e-03</threshold>
            <left_val>0.3180103003978729</left_val>
            <right_val>-0.2425432056188583</right_val></_></_>
        <_>
          <!-- tree 2 -->
          <_>
            <!-- root node -->
            <feature>
              <rects>
                <_>
                  6 2 3 6 -1.</_>
                <_>
                  7 2 1 6 3.</_></rects>
              <tilted>0</tilted></feature>
            <threshold>-0.0425891205668449</threshold>
            <left_node>1</left_node>
            <right_val>-0.1419021040201187</right_val></_>
          <_>
            <!-- node 1 -->
            <feature>
              <rects>
                <_>
                  6 0 4 2 -1.</_>
                <_>
                  6 0 2 1 2.</_>
                <_>
                  8 1 2 1 2.</_></rects>
              <tilted>0</tilted></feature>
            <threshold>0.0197064895182848</threshold>
            <left_val>-0.0134641900658607</left_val>
            <right_val>0.5735331773757935</right_val></_></_>
        <_>
          <!-- tree 3 -->
          <_>
            <!-- root node -->
            <feature>
              <rects>
                <_>
                  0 2 3 5 -1.</_>
                <_>
                  1 2 1 5 3.</_></rects>
              <tilted>0</tilted></feature>
            <threshold>-0.0439398102462292</threshold>
            <left_val>0.2410283982753754</left_val>
            <right_node>1</right_node></_>
          <_>
            <!-- node 1 -->
            <feature>
              <rects>
                <_>
                  2 0 1 2 -1.</_>
                <_>
                  2 1 1 1 2.</_></rects>
              <tilted>0</tilted></feature>
            <threshold>3.3157470170408487e-03</threshold>
            <left_val>-0.3176850974559784</left_val>
            <right_val>0.1552021056413651</right_val></_></_>
        <_>
          <!-- tree 4 -->
          <_>
            <!-- root node -->
            <feature>
              <rects>
                <_>
                  1 5 9 2 -1.</_>
                <_>
                  1 6 9 1 2.</_></rects>
              <tilted>0</tilted></feature>
            <threshold>0.0116645004600286</threshold>
            <left_val>-0.1983498036861420</left_val>
            <right_node>1</right_node></_>
          <_>
            <!-- node 1 -->
            <feature>
              <rects>
                <_>
                  2 4 6 4 -1.</_>
                <_>
                  5 4 3 4 2.</_></rects>
              <tilted>0</tilted></feature>
            <threshold>0.2102036029100418</threshold>
            <left_val>0.0756631866097450</left_val>
            <right_val>0.5798678994178772</right_val></_></_>
        <_>
          <!-- tree 5 -->
          <_>
            <!-- root node -->
            <feature>
              <rects>
                <_>
                  0 0 1 2 -1.</_>
                <_>
                  0 1 1 1 2.</_></rects>
              <tilted>0</tilted></feature>
            <threshold>7.9570729285478592e-03</threshold>
            <left_node>1</left_node>
            <right_val>-0.3583633899688721</right_val></_>
          <_>
            <!-- node 1 -->
            <feature>
              <rects>
                <_>
                  0 0 2 1 -1.</_>
                <_>
                  1 0 1 1 2.</_></rects>
              <tilted>0</tilted></feature>
            <threshold>-9.9359042942523956e-03</threshold>
            <left_val>-0.2687292098999023</left_val>
            <right_val>0.1565275043249130</right_val></_></_>
        <_>
          <!-- tree 6 -->
          <_>
            <!-- root node -->
            <feature>
              <rects>
                <_>
                  0 8 4 2 -1.</_>
                <_>
                  0 8 2 1 2.</_>
                <_>
                  2 9 2 1 2.</_></rects>
              <tilted>0</tilted></feature>
            <threshold>0.0154693601652980</threshold>
            <left_node>1</left_node>
            <right_val>0.2766346931457520</right_val></_>
          <_>
            <!-- node 1 -->
            <feature>
              <rects>
                <_>
                  1 8 4 2 -1.</_>
                <_>
                  1 8 2 1 2.</_>
                <_>
                  3 9 2 1 2.</_></rects>
              <tilted>0</tilted></feature>
            <threshold>-0.0135402400046587</threshold>
            <left_val>0.1553114950656891</left_val>
            <right_val>-0.1913098990917206</right_val></_></_>
        <_>
          <!-- tree 7 -->
          <_>
            <!-- root node -->
            <feature>
              <rects>
                <_>
                  6 3 1 2 -1.</_>
                <_>
                  6 4 1 1 2.</_></rects>
              <tilted>0</tilted></feature>
            <threshold>-9.6131610916927457e-05</threshold>
            <left_val>0.1303551942110062</left_val>
            <right_node>1</right_node></_>
          <_>
            <!-- node 1 -->
            <feature>
              <rects>
                <_>
                  3 4 4 6 -1.</_>
                <_>
                  3 6 4 2 3.</_></rects>
              <tilted>0</tilted></feature>
            <threshold>0.0521266609430313</threshold>
            <left_val>-0.3708770871162415</left_val>
            <right_val>0.0648324117064476</right_val></_></_>
        <_>
          <!-- tree 8 -->
          <_>
            <!-- root node -->
            <feature>
              <rects>
                <_>
                  1 1 9 7 -1.</_>
                <_>
                  4 1 3 7 3.</_></rects>
              <tilted>0</tilted></feature>
            <threshold>-0.6871889233589172</threshold>
            <left_node>1</left_node>
            <right_val>-0.0537068992853165</right_val></_>
          <_>
            <!-- node 1 -->
            <feature>
              <rects>
                <_>
                  2 0 6 4 -1.</_>
                <_>
                  2 2 6 2 2.</_></rects>
              <tilted>0</tilted></feature>
            <threshold>-0.1522714048624039</threshold>
            <left_val>0.7646598815917969</left_val>
            <right_val>-0.2319916933774948</right_val></_></_>
        <_>
          <!-- tree 9 -->
          <_>
            <!-- root node -->
            <feature>
              <rects>
                <_>
                  7 4 3 1 -1.</_>
                <_>
                  8 4 1 1 3.</_></rects>
              <tilted>0</tilted></feature>
            <threshold>-0.0138697400689125</threshold>
            <left_val>0.2469324022531509</left_val>
            <right_node>1</right_node></_>
          <_>
            <!-- node 1 -->
            <feature>
              <rects>
                <_>
                  8 3 2 4 -1.</_>
                <_>
                  9 3 1 4 2.</_></rects>
              <tilted>0</tilted></feature>
            <threshold>-0.0174459908157587</threshold>
            <left_val>0.1637104004621506</left_val>
            <right_val>-0.1845612972974777</right_val></_></_>
        <_>
          <!-- tree 10 -->
          <_>
            <!-- root node -->
            <feature>
              <rects>
                <_>
                  0 1 10 2 -1.</_>
                <_>
                  5 1 5 2 2.</_></rects>
              <tilted>0</tilted></feature>
            <threshold>0.1716295033693314</threshold>
            <left_node>1</left_node>
            <right_val>-0.3608205020427704</right_val></_>
          <_>
            <!-- node 1 -->
            <feature>
              <rects>
                <_>
                  0 0 6 6 -1.</_>
                <_>
                  0 3 6 3 2.</_></rects>
              <tilted>0</tilted></feature>
            <threshold>-0.5843415856361389</threshold>
            <left_val>-0.7581896781921387</left_val>
            <right_val>0.0894250497221947</right_val></_></_>
        <_>
          <!-- tree 11 -->
          <_>
            <!-- root node -->
            <feature>
              <rects>
                <_>
                  7 2 1 2 -1.</_>
                <_>
                  7 3 1 1 2.</_></rects>
              <tilted>0</tilted></feature>
            <threshold>-2.0050350576639175e-04</threshold>
            <left_val>0.1127260029315948</left_val>
            <right_node>1</right_node></_>
          <_>
            <!-- node 1 -->
            <feature>
              <rects>
                <_>
                  7 2 1 2 -1.</_>
                <_>
                  7 3 1 1 2.</_></rects>
              <tilted>0</tilted></feature>
            <threshold>2.1796319924760610e-04</threshold>
            <left_val>-0.6737012863159180</left_val>
            <right_val>-0.0648453310132027</right_val></_></_>
        <_>
          <!-- tree 12 -->
          <_>
            <!-- root node -->
            <feature>
              <rects>
                <_>
                  4 0 3 3 -1.</_>
                <_>
                  5 0 1 3 3.</_></rects>
              <tilted>0</tilted></feature>
            <threshold>-0.0582547485828400</threshold>
            <left_val>-0.8220235705375671</left_val>
            <right_node>1</right_node></_>
          <_>
            <!-- node 1 -->
            <feature>
              <rects>
                <_>
                  6 5 4 2 -1.</_>
                <_>
                  6 6 4 1 2.</_></rects>
              <tilted>0</tilted></feature>
            <threshold>0.0449876897037029</threshold>
            <left_val>0.0630936622619629</left_val>
            <right_val>-0.3532441854476929</right_val></_></_>
        <_>
          <!-- tree 13 -->
          <_>
            <!-- root node -->
            <feature>
              <rects>
                <_>
                  1 4 3 1 -1.</_>
                <_>
                  2 4 1 1 3.</_></rects>
              <tilted>0</tilted></feature>
            <threshold>-2.5655879289843142e-04</threshold>
            <left_node>1</left_node>
            <right_val>-0.1833385974168777</right_val></_>
          <_>
            <!-- node 1 -->
            <feature>
              <rects>
                <_>
                  2 2 1 3 -1.</_>
                <_>
                  2 3 1 1 3.</_></rects>
              <tilted>0</tilted></feature>
            <threshold>-2.2346459445543587e-04</threshold>
            <left_val>0.2280334979295731</left_val>
            <right_val>-0.1492864936590195</right_val></_></_>
        <_>
          <!-- tree 14 -->
          <_>
            <!-- root node -->
            <feature>
              <rects>
                <_>
                  6 1 2 2 -1.</_>
                <_>
                  6 1 1 1 2.</_>
                <_>
                  7 2 1 1 2.</_></rects>
              <tilted>0</tilted></feature>
            <threshold>-0.0113295903429389</threshold>
            <left_val>0.2957850098609924</left_val>
            <right_node>1</right_node></_>
          <_>
            <!-- node 1 -->
            <feature>
              <rects>
                <_>
                  6 0 2 2 -1.</_>
                <_>
                  6 1 2 1 2.</_></rects>
              <tilted>0</tilted></feature>
            <threshold>6.4791599288582802e-03</threshold>
            <left_val>-0.1552349030971527</left_val>
            <right_val>0.1922612041234970</right_val></_></_>
        <_>
          <!-- tree 15 -->
          <_>
            <!-- root node -->
            <feature>
              <rects>
                <_>
                  5 1 1 3 -1.</_>
                <_>
                  5 2 1 1 3.</_></rects>
              <tilted>0</tilted></feature>
            <threshold>-5.5174471344798803e-04</threshold>
            <left_node>1</left_node>
            <right_val>-0.1350363045930862</right_val></_>
          <_>
            <!-- node 1 -->
            <feature>
              <rects>
                <_>
                  2 1 4 1 -1.</_>
                <_>
                  4 1 2 1 2.</_></rects>
              <tilted>0</tilted></feature>
            <threshold>9.0634226799011230e-03</threshold>
            <left_val>0.2202104926109314</left_val>
            <right_val>-0.3200385868549347</right_val></_></_>
        <_>
          <!-- tree 16 -->
          <_>
            <!-- root node -->
            <feature>
              <rects>
                <_>
                  2 4 6 3 -1.</_>
                <_>
                  2 5 6 1 3.</_></rects>
              <tilted>0</tilted></feature>
            <threshold>-0.0186178293079138</threshold>
            <left_val>0.1668882071971893</left_val>
            <right_node>1</right_node></_>
          <_>
            <!-- node 1 -->
            <feature>
              <rects>
                <_>
                  7 8 2 2 -1.</_>
                <_>
                  7 8 1 1 2.</_>
                <_>
                  8 9 1 1 2.</_></rects>
              <tilted>0</tilted></feature>
            <threshold>-5.8769388124346733e-03</threshold>
            <left_val>0.1554078012704849</left_val>
            <right_val>-0.1881859004497528</right_val></_></_>
        <_>
          <!-- tree 17 -->
          <_>
            <!-- root node -->
            <feature>
              <rects>
                <_>
                  7 8 3 1 -1.</_>
                <_>
                  8 8 1 1 3.</_></rects>
              <tilted>0</tilted></feature>
            <threshold>-6.2918118201196194e-03</threshold>
            <left_val>0.1839175969362259</left_val>
            <right_node>1</right_node></_>
          <_>
            <!-- node 1 -->
            <feature>
              <rects>
                <_>
                  5 8 4 2 -1.</_>
                <_>
                  7 8 2 2 2.</_></rects>
              <tilted>0</tilted></feature>
            <threshold>0.0418539904057980</threshold>
            <left_val>-0.2436556965112686</left_val>
            <right_val>0.1411702036857605</right_val></_></_>
        <_>
          <!-- tree 18 -->
          <_>
            <!-- root node -->
            <feature>
              <rects>
                <_>
                  1 0 2 4 -1.</_>
                <_>
                  1 0 1 2 2.</_>
                <_>
                  2 2 1 2 2.</_></rects>
              <tilted>0</tilted></feature>
            <threshold>0.0146725103259087</threshold>
            <left_node>1</left_node>
            <right_val>0.2490675002336502</right_val></_>
